#! FIELDS dist ves.bias der_dist
#! SET min_dist 0.2
#! SET max_dist 0.7
#! SET nbins_dist  301
#! SET periodic_dist false
    0.200000000  -52.753217400 1512.089930570
    0.201666667  -53.916815467   25.415650933
    0.203333333  -53.226949092 -758.418145735
    0.205000000  -51.643717195 -1081.226209343
    0.206666667  -49.778793708 -1121.699241671
    0.208333333  -47.989352895 -1008.536415800
    0.210000000  -46.452033985 -831.323657294
    0.211666667  -45.220424431 -649.483864472
    0.213333333  -44.269031720 -499.584965842
    0.215000000  -43.526267689 -401.255704600
    0.216666667  -42.898580136 -361.926913832
    0.218333333  -42.287527854 -380.587442402
    0.220000000  -41.601301573 -450.718480002
    0.221666667  -40.761939503 -562.547506391
    0.223333333  -39.709267754 -704.743175062
    0.225000000  -38.402408675 -865.654879072
    0.226666667  -36.819540364 -1034.185301682
    0.228333333  -34.956454999 -1200.370711636
    0.230000000  -32.824349109 -1355.731925744
    0.231666667  -30.447182822 -1493.448550593
    0.233333333  -27.858865094 -1608.400166903
    0.235000000  -25.100455735 -1697.110385543
    0.236666667  -22.217520879 -1757.623048115
    0.238333333  -19.257734588 -1789.334144617
    0.240000000  -16.268784214 -1792.798164725
    0.241666667  -13.296609397 -1769.523487343
    0.243333333  -10.383983282 -1721.767954428
    0.245000000   -7.569428357 -1652.342888129
    0.246666667   -4.886447690 -1564.431421628
    0.248333333   -2.363044170 -1461.425057918
    0.250000000   -0.021495253 -1346.780788331
    0.251666667    2.121652115 -1223.899841430
    0.253333333    4.055402621 -1096.028146323
    0.255000000    5.773985497 -966.177841025
    0.256666667    7.276413328 -837.068599769
    0.258333333    8.565958475 -711.087160752
    0.260000000    9.649575940 -590.263179584
    0.261666667   10.537298175 -476.259388810
    0.263333333   11.241623989 -370.373988926
    0.265000000   11.776920188 -273.553212620
    0.266666667   12.158851251 -186.412075560
    0.268333333   12.403849105 -109.261440166
    0.270000000   12.528632047  -42.139661949
    0.271666667   12.549779138   15.152748815
    0.273333333   12.483363890   63.016842027
    0.275000000   12.344648937  102.018530800
    0.276666667   12.147841474  132.852513701
    0.278333333   11.905907709  156.307671549
    0.280000000   11.630443268  173.234626226
    0.281666667   11.331595485  184.515991563
    0.283333333   11.018032763  191.039701308
    0.285000000   10.696955629  193.675667622
    0.286666667   10.374143818  193.255906348
    0.288333333   10.054033568  190.558162573
    0.290000000    9.739819312  186.292981802
    0.291666667    9.433574137  181.094098033
    0.293333333    9.136383628  175.511949462
    0.295000000    8.848488071  170.010084840
    0.296666667    8.569428424  164.964187655
    0.298333333    8.298191941  160.663420343
    0.300000000    8.033353838  157.313775648
    0.301666667    7.773211922  155.043115877
    0.303333333    7.515911635  153.907582132
    0.305000000    7.259559490  153.899063512
    0.306666667    7.002323388  154.953429747
    0.308333333    6.742518763  156.959248735
    0.310000000    6.478679979  159.766732059
    0.311666667    6.209616795  163.196675923
    0.313333333    5.934456070  167.049191137
    0.315000000    5.652669222  171.112043216
    0.316666667    5.364086222  175.168451523
    0.318333333    5.068897127  179.004224194
    0.320000000    4.767642337  182.414132771
    0.321666667    4.461192921  185.207456575
    0.323333333    4.150722424  187.212651626
    0.325000000    3.837671632  188.281121831
    0.326666667    3.523707813  188.290091282
    0.328333333    3.210679902  187.144595352
    0.330000000    2.900571081  184.778624984
    0.331666667    2.595450123  181.155472877
    0.333333333    2.297422788  176.267342315
    0.335000000    2.008584426  170.134289050
    0.336666667    1.730974860  162.802574096
    0.338333333    1.466536438  154.342510550
    0.340000000    1.217076034  144.845890765
    0.341666667    0.984231637  134.423081481
    0.343333333    0.769443986  123.199874057
    0.345000000    0.573933603  111.314174870
    0.346666667    0.398683423   98.912617479
    0.348333333    0.244427075   86.147173425
    0.350000000    0.111642766   73.171832796
    0.351666667    0.000552595   60.139419090
    0.353333333   -0.088872977   47.198595609
    0.355000000   -0.156905865   34.491112869
    0.356666667   -0.204046739   22.149338424
    0.358333333   -0.231007540   10.294102245
    0.360000000   -0.238690697   -0.967117421
    0.361666667   -0.228165603  -11.541650951
    0.363333333   -0.200642978  -21.352728047
    0.365000000   -0.157447716  -30.340200790
    0.366666667   -0.099990829  -38.460904622
    0.368333333   -0.029741088  -45.688669259
    0.370000000    0.051803083  -52.013997396
    0.371666667    0.143140906  -57.443434236
    0.373333333    0.242795263  -61.998655280
    0.375000000    0.349336983  -65.715303565
    0.376666667    0.461406992  -68.641610440
    0.378333333    0.577736022  -70.836836178
    0.380000000    0.697161587  -72.369568150
    0.381666667    0.818642041  -73.315915004
    0.383333333    0.941267553  -73.757635299
    0.385000000    1.064267948  -73.780238406
    0.386666667    1.187017377  -73.471094234
    0.388333333    1.309035871  -72.917586527
    0.390000000    1.429987876  -72.205342155
    0.391666667    1.549677919  -71.416566087
    0.393333333    1.668043613  -70.628508610
    0.395000000    1.785146219  -69.912087917
    0.396666667    1.901159076  -69.330687533
    0.398333333    2.016354161  -68.939144224
    0.400000000    2.131087151  -68.782938087
    0.401666667    2.245781292  -68.897592561
    0.403333333    2.360910455  -69.308288152
    0.405000000    2.476981728  -70.029689833
    0.406666667    2.594517885  -71.065984361
    0.408333333    2.714040103  -72.411120229
    0.410000000    2.836051225  -74.049239757
    0.411666667    2.961019909  -75.955289774
    0.413333333    3.089365917  -78.095794737
    0.415000000    3.221446830  -80.429773801
    0.416666667    3.357546388  -82.909781390
    0.418333333    3.497864655  -85.483049320
    0.420000000    3.642510155  -88.092707324
    0.421666667    3.791494093  -90.679058113
    0.423333333    3.944726727  -93.180882784
    0.425000000    4.102015929  -95.536752399
    0.426666667    4.263067914  -97.686322078
    0.428333333    4.427490100  -99.571584697
    0.430000000    4.594796007 -101.138062514
    0.431666667    4.764412079 -102.335916483
    0.433333333    4.935686266 -103.120954837
    0.435000000    5.107898199 -103.455524538
    0.436666667    5.280270743 -103.309271464
    0.438333333    5.451982693 -102.659757647
    0.440000000    5.622182376 -101.492926465
    0.441666667    5.790001903  -99.803409373
    0.443333333    5.954571787  -97.594670529
    0.445000000    6.115035676  -94.878988418
    0.446666667    6.270564911  -91.677276319
    0.448333333    6.420372664  -88.018746156
    0.450000000    6.563727380  -83.940422821
    0.451666667    6.699965298  -79.486518514
    0.453333333    6.828501818  -74.707678867
    0.455000000    6.948841517  -69.660114695
    0.456666667    7.060586626  -64.404635008
    0.458333333    7.163443835  -59.005598464
    0.460000000    7.257229286  -53.529801709
    0.461666667    7.341871683  -48.045324027
    0.463333333    7.417413443  -42.620348338
    0.465000000    7.484009889  -37.321978955
    0.466666667    7.541926472  -32.215076486
    0.468333333    7.591534091  -27.361129954
    0.470000000    7.633302563  -22.817185593
    0.471666667    7.667792388  -18.634850797
    0.473333333    7.695644907  -14.859390504
    0.475000000    7.717571058  -11.528931748
    0.476666667    7.734338899   -8.673790382
    0.478333333    7.746760123   -6.315931937
    0.480000000    7.755675785   -4.468576454
    0.481666667    7.761941509   -3.135954714
    0.483333333    7.766412406   -2.313220849
    0.485000000    7.769927984   -1.986523706
    0.486666667    7.773297313   -2.133236737
    0.488333333    7.777284693   -2.722343503
    0.490000000    7.782596104   -3.714973289
    0.491666667    7.789866653   -5.065078742
    0.493333333    7.799649279   -6.720245004
    0.495000000    7.812404889   -8.622617491
    0.496666667    7.828494144  -10.709933345
    0.498333333    7.848171034  -12.916639663
    0.500000000    7.871578367  -15.175079942
    0.501666667    7.898745298  -17.416728790
    0.503333333    7.929586919  -19.573453859
    0.505000000    7.963905981  -21.578783204
    0.506666667    8.001396700  -23.369155847
    0.508333333    8.041650628  -24.885133266
    0.510000000    8.084164492  -26.072549825
    0.511666667    8.128349888  -26.883580849
    0.513333333    8.173544664  -27.277708061
    0.515000000    8.219025822  -27.222563501
    0.516666667    8.264023710  -26.694634781
    0.518333333    8.307737262  -25.679816602
    0.520000000    8.349350023  -24.173795782
    0.521666667    8.388046665  -22.182259729
    0.523333333    8.423029704  -19.720921096
    0.525000000    8.453536099  -16.815354483
    0.526666667    8.478853417  -13.500644203
    0.528333333    8.498335266   -9.820845492
    0.530000000    8.511415664   -5.828264896
    0.531666667    8.517622079   -1.582568943
    0.533333333    8.516586833    2.850266468
    0.535000000    8.508056649    7.399150338
    0.536666667    8.491900087   11.989195818
    0.538333333    8.468112701   16.543142972
    0.540000000    8.436819750   20.982861048
    0.541666667    8.398276359   25.230904075
    0.543333333    8.352865061   29.212091797
    0.545000000    8.301090704   32.855086589
    0.546666667    8.243572758   36.093936134
    0.548333333    8.181035089   38.869551248
    0.550000000    8.114293362   41.131088428
    0.551666667    8.044240224   42.837207434
    0.553333333    7.971828524   43.957175545
    0.555000000    7.898052839   44.471792040
    0.556666667    7.823929620   44.374108926
    0.558333333    7.750476328   43.669927041
    0.560000000    7.678689935   42.378050210
    0.561666667    7.609525224   40.530284272
    0.563333333    7.543873296   38.171172352
    0.565000000    7.482540749   35.357462714
    0.566666667    7.426229969   32.157310812
    0.568333333    7.375520957   28.649222723
    0.570000000    7.330855134   24.920752796
    0.571666667    7.292521504   21.066974150
    0.573333333    7.260645542   17.188746299
    0.575000000    7.235181111   13.390809743
    0.576666667    7.215905687    9.779742562
    0.578333333    7.202419066    6.461818889
    0.580000000    7.194145694    3.540813344
    0.581666667    7.190340676    1.115799144
    0.583333333    7.190099417   -0.721009703
    0.585000000    7.192370786   -1.886319811
    0.586666667    7.195973606   -2.307670426
    0.588333333    7.199616162   -1.925143323
    0.590000000    7.201918360   -0.692819569
    0.591666667    7.201436064    1.420064953
    0.593333333    7.196687084    4.428309049
    0.595000000    7.186178193    8.330318763
    0.596666667    7.168432521   13.108093890
    0.598333333    7.142016609   18.727650809
    0.600000000    7.105566381   25.139894153
    0.601666667    7.057811293   32.281938767
    0.603333333    6.997595908   40.078871231
    0.605000000    6.923898184   48.445927191
    0.606666667    6.835843811   57.291047008
    0.608333333    6.732716009   66.517758100
    0.610000000    6.613960295   76.028318192
    0.611666667    6.479183848   85.727039764
    0.613333333    6.328149248   95.523702838
    0.615000000    6.160762517  105.336951229
    0.616666667    5.977055604  115.097557086
    0.618333333    5.777163619  124.751430441
    0.620000000    5.561297349  134.262245193
    0.621666667    5.329711815  143.613551001
    0.623333333    5.082671820  152.810242611
    0.625000000    4.820415674  161.879264691
    0.626666667    4.543118460  170.869441985
    0.628333333    4.250856368  179.850341885
    0.630000000    3.943573796  188.910099912
    0.631666667    3.621054957  198.152168464
    0.633333333    3.282901814  207.690985569
    0.635000000    2.928520104  217.646603595
    0.636666667    2.557115132  228.138367465
    0.638333333    2.167698783  239.277787689
    0.640000000    1.759108955  251.160814564
    0.641666667    1.330042179  263.859785138
    0.643333333    0.879099705  277.415382359
    0.645000000    0.404846697  291.829014072
    0.646666667   -0.094116541  307.056085511
    0.648333333   -0.619073240  323.000699005
    0.650000000   -1.171101597  339.512364598
    0.651666667   -1.750982833  356.385339779
    0.653333333   -2.359110769  373.361229099
    0.655000000   -2.995408893  390.135457551
    0.656666667   -3.659261828  406.368176020
    0.658333333   -4.349468996  421.700052277
    0.660000000   -5.064228893  435.773234350
    0.661666667   -5.801162651  448.257530194
    0.663333333   -6.557385417  458.881511651
    0.665000000   -7.329633193  467.467802439
    0.666666667   -8.114451104  473.971227301
    0.668333333   -8.908446257  478.517757331
    0.670000000   -9.708604172  481.441256201
    0.671666667  -10.512661829  483.313881279
    0.673333333  -11.319522349  484.964585719
    0.675000000  -12.129685696  487.478461497
    0.676666667  -12.945656001  492.167612701
    0.678333333  -13.772268647  500.501801472
    0.680000000  -14.616858285  513.984207928
    0.681666667  -15.489161747  533.954225699
    0.683333333  -16.400816458  561.295204658
    0.685000000  -17.364274302  596.020372323
    0.686666667  -18.390901889  636.704727111
    0.688333333  -19.487979369  679.724402364
    0.690000000  -20.654239839  718.257742278
    0.691666667  -21.873508374  740.993990615
    0.693333333  -23.105901735  730.485939680
    0.695000000  -24.275934826  661.071976953
    0.696666667  -25.256745598  496.280542196
    0.698333333  -25.849493569  185.615896258
    0.700000000  -25.756805609    0.000000000
