#! FIELDS dist ves.bias der_dist
#! SET min_dist 0.2
#! SET max_dist 0.7
#! SET nbins_dist  301
#! SET periodic_dist false
    0.200000000  -12.021839912 1169.651037589
    0.201666667  -13.957685857 1149.385340475
    0.203333333  -15.840028600 1105.207569153
    0.205000000  -17.628650912 1037.770244477
    0.206666667  -19.290968162  954.705598934
    0.208333333  -20.799610529  851.347313820
    0.210000000  -22.113158078  720.317313204
    0.211666667  -23.188557312  565.801015465
    0.213333333  -23.987644779  391.890927978
    0.215000000  -24.492781041  215.709435437
    0.216666667  -24.714988803   51.771353526
    0.218333333  -24.671911928 -100.284376289
    0.220000000  -24.388243555 -237.044759367
    0.221666667  -23.890561681 -358.541455420
    0.223333333  -23.201183675 -465.614225488
    0.225000000  -22.350391530 -551.289889567
    0.226666667  -21.373208611 -619.776399606
    0.228333333  -20.288336029 -681.329863964
    0.230000000  -19.105223629 -737.158318990
    0.231666667  -17.832801263 -789.343754028
    0.233333333  -16.478789843 -833.285044607
    0.235000000  -15.064277305 -861.334511624
    0.236666667  -13.614517725 -876.752772236
    0.238333333  -12.147736901 -881.653923626
    0.240000000  -10.679474033 -879.391295732
    0.241666667   -9.218050979 -873.733544598
    0.243333333   -7.771092579 -861.389714106
    0.245000000   -6.349559070 -843.797663065
    0.246666667   -4.957892377 -826.415926300
    0.248333333   -3.595168864 -809.073689245
    0.250000000   -2.260422215 -792.654688967
    0.251666667   -0.954090381 -773.432924115
    0.253333333    0.310947676 -742.678053307
    0.255000000    1.515137736 -700.677186751
    0.256666667    2.641546445 -648.945889131
    0.258333333    3.673081578 -588.138539811
    0.260000000    4.598519700 -521.541483472
    0.261666667    5.408186190 -447.968382115
    0.263333333    6.088510652 -368.647234351
    0.265000000    6.637358704 -290.863612701
    0.266666667    7.060633237 -217.519369067
    0.268333333    7.366427224 -150.744515025
    0.270000000    7.567036162  -91.081461937
    0.271666667    7.671209550  -34.137742871
    0.273333333    7.682962983   19.540826140
    0.275000000    7.609476682   67.331128380
    0.276666667    7.461554139  108.958041732
    0.278333333    7.250960626  142.553748315
    0.280000000    6.990470612  168.988222605
    0.281666667    6.690665941  189.632872777
    0.283333333    6.363081280  201.859781639
    0.285000000    6.022610783  205.326632604
    0.286666667    5.683470347  200.380677512
    0.288333333    5.358613393  188.731159967
    0.290000000    5.054198871  176.706362779
    0.291666667    4.768284746  166.849326808
    0.293333333    4.497262042  158.855206079
    0.295000000    4.237074151  153.654857521
    0.296666667    3.984090089  150.105780035
    0.298333333    3.735714557  148.589144267
    0.300000000    3.486798918  150.625872431
    0.301666667    3.232702309  154.276761458
    0.303333333    2.972494689  157.974816971
    0.305000000    2.706468728  161.104149099
    0.306666667    2.436160074  163.150376894
    0.308333333    2.161822999  166.385449583
    0.310000000    1.880455493  171.530214730
    0.311666667    1.589589544  177.670842714
    0.313333333    1.287840614  184.338515637
    0.315000000    0.975861031  189.685684291
    0.316666667    0.656686215  193.101149064
    0.318333333    0.332864531  195.220227472
    0.320000000    0.006995203  195.441233321
    0.321666667   -0.317372499  193.485467271
    0.323333333   -0.636749793  189.283301252
    0.325000000   -0.946916487  182.593594986
    0.326666667   -1.244733020  174.793307676
    0.328333333   -1.529536659  166.929190594
    0.330000000   -1.801253159  159.129687024
    0.331666667   -2.060129905  151.588017563
    0.333333333   -2.306256629  143.633099942
    0.335000000   -2.538633619  135.074220521
    0.336666667   -2.756496844  126.441102858
    0.338333333   -2.959987088  117.753215466
    0.340000000   -3.149082406  109.116061446
    0.341666667   -3.323832599  100.617719332
    0.343333333   -3.484393084   92.096768253
    0.345000000   -3.630959161   83.828556463
    0.346666667   -3.764187634   76.104734075
    0.348333333   -3.884944225   68.955006900
    0.350000000   -3.994329352   62.386855653
    0.351666667   -4.093111131   56.094303661
    0.353333333   -4.181363567   49.886294379
    0.355000000   -4.259401186   43.790741751
    0.356666667   -4.327404910   37.794853941
    0.358333333   -4.385561419   32.056373197
    0.360000000   -4.434386592   26.597801251
    0.361666667   -4.474293608   21.296881199
    0.363333333   -4.505508352   16.154264022
    0.365000000   -4.528200434   11.133253457
    0.366666667   -4.542646990    6.230850761
    0.368333333   -4.549106241    1.496936794
    0.370000000   -4.547680457   -3.173044172
    0.371666667   -4.538485177   -7.844830446
    0.373333333   -4.521535766  -12.526417972
    0.375000000   -4.496751439  -17.205426770
    0.376666667   -4.464276518  -21.689764868
    0.378333333   -4.424588344  -25.902813478
    0.380000000   -4.378098517  -29.876966784
    0.381666667   -4.325136985  -33.608300163
    0.383333333   -4.266114582  -37.197961439
    0.385000000   -4.201227730  -40.666407017
    0.386666667   -4.130676884  -43.949676784
    0.388333333   -4.054766029  -47.120911481
    0.390000000   -3.973636197  -50.238698161
    0.391666667   -3.887327195  -53.346340019
    0.393333333   -3.795774586  -56.497974216
    0.395000000   -3.699033033  -59.567721894
    0.396666667   -3.597320305  -62.496738628
    0.398333333   -3.490768729  -65.320166740
    0.400000000   -3.379604698  -68.070908346
    0.401666667   -3.263810204  -70.932599701
    0.403333333   -3.143066735  -73.969285965
    0.405000000   -3.017188381  -77.082680325
    0.406666667   -2.886067903  -80.290119507
    0.408333333   -2.749530919  -83.570959594
    0.410000000   -2.607472699  -86.884471319
    0.411666667   -2.459863780  -90.248150174
    0.413333333   -2.306754288  -93.458991907
    0.415000000   -2.148542247  -96.304876175
    0.416666667   -1.985947207  -98.726754020
    0.418333333   -1.819727296 -100.668133961
    0.420000000   -1.650580045 -102.260017959
    0.421666667   -1.479012751 -103.558770990
    0.423333333   -1.305596647 -104.473607152
    0.425000000   -1.130984560 -104.989341852
    0.426666667   -0.955904383 -105.019206740
    0.428333333   -0.781201066 -104.554086202
    0.430000000   -0.607584134 -103.711770689
    0.431666667   -0.435722743 -102.448293900
    0.433333333   -0.266363737 -100.720968566
    0.435000000   -0.100209646  -98.577111537
    0.436666667    0.062026200  -96.043796993
    0.438333333    0.219854217  -93.378770253
    0.440000000    0.373328302  -90.803826044
    0.441666667    0.522639262  -88.366958334
    0.443333333    0.668006915  -86.126787065
    0.445000000    0.809746445  -83.969549682
    0.446666667    0.947946698  -81.869050914
    0.448333333    1.082760849  -79.944426470
    0.450000000    1.214508459  -78.190450925
    0.451666667    1.343495949  -76.622359505
    0.453333333    1.470038559  -75.236678031
    0.455000000    1.594326868  -73.934221300
    0.456666667    1.716563039  -72.791071135
    0.458333333    1.837109326  -71.884357700
    0.460000000    1.956299595  -71.181654223
    0.461666667    2.074467668  -70.638323078
    0.463333333    2.191704637  -69.997541266
    0.465000000    2.307644405  -69.079687389
    0.466666667    2.421814415  -67.884240431
    0.468333333    2.533744045  -66.377940659
    0.470000000    2.642972366  -64.652030266
    0.471666667    2.749146856  -62.730751173
    0.473333333    2.851887166  -60.509789270
    0.475000000    2.950731864  -58.047983413
    0.476666667    3.045301163  -55.421781255
    0.478333333    3.135374875  -52.667994796
    0.480000000    3.220848734  -49.877954405
    0.481666667    3.301570930  -46.937772614
    0.483333333    3.377156524  -43.751881503
    0.485000000    3.447300011  -40.389790421
    0.486666667    3.511751323  -36.908977388
    0.488333333    3.570414399  -33.562593950
    0.490000000    3.623757099  -30.497914313
    0.491666667    3.672199976  -27.645635631
    0.493333333    3.716074381  -25.062483724
    0.495000000    3.755891252  -22.770413757
    0.496666667    3.792117024  -20.750829253
    0.498333333    3.825281019  -19.096258063
    0.500000000    3.855895418  -17.652829019
    0.501666667    3.884093413  -16.179347233
    0.503333333    3.909811491  -14.656947816
    0.505000000    3.932903658  -13.054274992
    0.506666667    3.953360895  -11.535353458
    0.508333333    3.971489044  -10.247124806
    0.510000000    3.987580363   -9.073738943
    0.511666667    4.001798245   -8.010295295
    0.513333333    4.014324077   -7.025225130
    0.515000000    4.025225829   -6.072472963
    0.516666667    4.034697689   -5.335071083
    0.518333333    4.043085048   -4.720868487
    0.520000000    4.050350815   -3.978820516
    0.521666667    4.056300838   -3.149384477
    0.523333333    4.060802958   -2.241751534
    0.525000000    4.063879110   -1.535518010
    0.526666667    4.066264256   -1.432771258
    0.528333333    4.068949595   -1.850099202
    0.530000000    4.072694861   -2.728112026
    0.531666667    4.078234126   -3.980723657
    0.533333333    4.086060989   -5.428193764
    0.535000000    4.096544611   -7.203596136
    0.536666667    4.110154095   -9.134614028
    0.538333333    4.126772609  -10.728100860
    0.540000000    4.145672202  -11.839564552
    0.541666667    4.165860817  -12.261676887
    0.543333333    4.186183520  -12.084908239
    0.545000000    4.206061730  -11.736299476
    0.546666667    4.225159937  -11.107402983
    0.548333333    4.242861196  -10.060975325
    0.550000000    4.258316515   -8.355517380
    0.551666667    4.270155245   -5.686187309
    0.553333333    4.276893866   -2.279547579
    0.555000000    4.277391425    1.784011763
    0.556666667    4.270463798    6.636146286
    0.558333333    4.254942211   12.120662141
    0.560000000    4.229737163   18.247585795
    0.561666667    4.193904717   24.664722449
    0.563333333    4.147815387   30.526465164
    0.565000000    4.092660129   35.561488977
    0.566666667    4.029816591   39.627597830
    0.568333333    3.961081535   42.719972379
    0.570000000    3.887820707   45.088679496
    0.571666667    3.811270140   46.600626761
    0.573333333    3.733025165   47.132225557
    0.575000000    3.654696717   46.696625728
    0.576666667    3.577910126   45.274356297
    0.578333333    3.504262133   42.995202890
    0.580000000    3.435030932   39.959709311
    0.581666667    3.371435506   36.206383958
    0.583333333    3.314671536   31.843555050
    0.585000000    3.265612406   26.980457919
    0.586666667    3.224875383   21.852736056
    0.588333333    3.192725031   16.732109875
    0.590000000    3.168969854   11.901034860
    0.591666667    3.152734741    7.681781641
    0.593333333    3.142969331    4.089897925
    0.595000000    3.138688331    1.227396965
    0.596666667    3.138515237   -0.900370625
    0.598333333    3.141212358   -2.166334901
    0.600000000    3.144742991   -1.728130949
    0.601666667    3.145891645    0.683684359
    0.603333333    3.141311427    5.186641864
    0.605000000    3.127467696   11.692852142
    0.606666667    3.101866619   19.081458927
    0.608333333    3.063430244   27.240531536
    0.610000000    3.010410857   36.634068912
    0.611666667    2.940730623   47.094909999
    0.613333333    2.852559201   58.976910633
    0.615000000    2.743693562   71.710722113
    0.616666667    2.613626971   84.372520766
    0.618333333    2.461700848   98.229312883
    0.620000000    2.285388169  113.584622457
    0.621666667    2.082344311  130.393685364
    0.623333333    1.850086273  148.079165265
    0.625000000    1.590417446  162.810894276
    0.626666667    1.309838384  173.287616030
    0.628333333    1.014666345  180.248574635
    0.630000000    0.711026090  183.727066453
    0.631666667    0.403048972  185.751254907
    0.633333333    0.092304409  186.678050628
    0.635000000   -0.217770425  185.192656768
    0.636666667   -0.524907085  183.690850208
    0.638333333   -0.831151058  184.018435850
    0.640000000   -1.140341680  187.789424350
    0.641666667   -1.459871322  196.371370002
    0.643333333   -1.795026522  205.543682026
    0.645000000   -2.144587086  213.777751311
    0.646666667   -2.507838572  222.242481025
    0.648333333   -2.885756510  231.950107575
    0.650000000   -3.285219385  248.955623068
    0.651666667   -3.720956787  274.853351860
    0.653333333   -4.204185341  306.054373988
    0.655000000   -4.744038726  343.149458592
    0.656666667   -5.351149322  385.359562751
    0.658333333   -6.031003885  431.344188791
    0.660000000   -6.791078319  481.508950348
    0.661666667   -7.633794029  527.913289394
    0.663333333   -8.545068602  563.503080091
    0.665000000   -9.504877587  586.046732699
    0.666666667  -10.489861537  593.564165731
    0.668333333  -11.478661769  591.906656156
    0.670000000  -12.458956347  583.059685905
    0.671666667  -13.416059623  563.365576607
    0.673333333  -14.330771389  532.330444214
    0.675000000  -15.182154215  486.800866680
    0.676666667  -15.945122756  426.570027251
    0.678333333  -16.599194853  356.590840284
    0.680000000  -17.126967176  274.752424620
    0.681666667  -17.506970492  179.148219481
    0.683333333  -17.718557953   71.851576478
    0.685000000  -17.740624494  -45.418144960
    0.686666667  -17.567288792 -160.854729864
    0.688333333  -17.211188693 -265.247472054
    0.690000000  -16.690328533 -357.228134213
    0.691666667  -16.028260127 -434.581238902
    0.693333333  -15.247718689 -500.726983307
    0.695000000  -14.365019918 -556.549647200
    0.696666667  -13.401338796 -597.047450600
    0.698333333  -12.382290869 -623.805299921
    0.700000000  -11.328095390 -639.353007365
