#! FIELDS dist ves.bias der_dist
#! SET min_dist 0.2
#! SET max_dist 0.7
#! SET nbins_dist  301
#! SET periodic_dist false
    0.200000000  -21.399079819 2074.381972650
    0.201666667  -24.828599383 2033.232828971
    0.203333333  -28.148880604 1942.183466686
    0.205000000  -31.274706044 1801.648394599
    0.206666667  -34.136839698 1627.811589443
    0.208333333  -36.677030067 1412.015197632
    0.210000000  -38.813404649 1142.980381420
    0.211666667  -40.463607141  828.366826430
    0.213333333  -41.551891644  475.530641573
    0.215000000  -42.046804348  122.304921598
    0.216666667  -41.979051892 -200.924538162
    0.218333333  -41.395114037 -492.041637607
    0.220000000  -40.359155507 -743.913344460
    0.221666667  -38.933896144 -962.769804606
    0.223333333  -37.167105233 -1150.808150993
    0.225000000  -35.123933443 -1292.530114769
    0.226666667  -32.880581696 -1394.660152308
    0.228333333  -30.489076853 -1471.075560747
    0.230000000  -27.990363341 -1524.152284168
    0.231666667  -25.416687137 -1561.942546223
    0.233333333  -22.797751522 -1574.053324015
    0.235000000  -20.192234705 -1546.637070574
    0.236666667  -17.660946826 -1486.665899253
    0.238333333  -15.251688037 -1400.014922579
    0.240000000  -12.997798441 -1304.604208626
    0.241666667  -10.900223352 -1214.166319033
    0.243333333   -8.951345749 -1124.419303631
    0.245000000   -7.148123777 -1039.781699719
    0.246666667   -5.479214233 -965.217214841
    0.248333333   -3.926814043 -900.198211586
    0.250000000   -2.469495181 -850.659753394
    0.251666667   -1.085871003 -809.129698488
    0.253333333    0.222576353 -759.923252838
    0.255000000    1.442257639 -702.179655103
    0.256666667    2.558747993 -635.476610641
    0.258333333    3.558267124 -564.938123798
    0.260000000    4.443432602 -497.897287943
    0.261666667    5.218194110 -430.577294418
    0.263333333    5.878651807 -362.697577456
    0.265000000    6.427648638 -296.671962443
    0.266666667    6.868439925 -232.414450324
    0.268333333    7.206055050 -173.803514227
    0.270000000    7.450414290 -119.918667695
    0.271666667    7.604560584  -64.678032404
    0.273333333    7.666028809   -8.654018592
    0.275000000    7.633801530   46.778836992
    0.276666667    7.511569608   98.512039230
    0.278333333    7.311133585  140.587139838
    0.280000000    7.048226182  173.544232208
    0.281666667    6.736896644  198.461695830
    0.283333333    6.391748892  214.208161978
    0.285000000    6.027317914  221.834360853
    0.286666667    5.657558892  220.396266045
    0.288333333    5.296952479  211.508044074
    0.290000000    4.952655313  201.703291040
    0.291666667    4.623799222  193.318791623
    0.293333333    4.307465300  186.747464155
    0.295000000    3.999815671  182.510429206
    0.296666667    3.699066325  178.323511092
    0.298333333    3.405266906  174.648765014
    0.300000000    3.115660505  173.135997609
    0.301666667    2.827608379  172.495902067
    0.303333333    2.540541349  172.073235536
    0.305000000    2.254333822  171.211365509
    0.306666667    1.970363028  169.440262143
    0.308333333    1.688625658  169.038626226
    0.310000000    1.405811427  170.651394230
    0.311666667    1.119086996  173.628356984
    0.313333333    0.826440447  177.503943173
    0.315000000    0.528108470  180.174003921
    0.316666667    0.226937486  181.021464202
    0.318333333   -0.074735857  180.728473149
    0.320000000   -0.374541737  178.720100341
    0.321666667   -0.669385394  174.838277034
    0.323333333   -0.956331570  169.049868537
    0.325000000   -1.231677355  161.113309967
    0.326666667   -1.492976380  152.553937756
    0.328333333   -1.740499223  144.532720310
    0.330000000   -1.975128820  137.102282585
    0.331666667   -2.197964603  130.447554927
    0.333333333   -2.409964605  123.909797266
    0.335000000   -2.610936566  117.204281711
    0.336666667   -2.800902209  110.875323461
    0.338333333   -2.980572866  104.730528260
    0.340000000   -3.149944305   98.448446499
    0.341666667   -3.308672705   91.995362986
    0.343333333   -3.456332933   85.155874382
    0.345000000   -3.592464639   78.216637462
    0.346666667   -3.717294682   71.610058194
    0.348333333   -3.831286853   65.251298254
    0.350000000   -3.934881294   59.083113892
    0.351666667   -4.028271188   52.885824914
    0.353333333   -4.111033256   46.462505032
    0.355000000   -4.183057706   39.974791388
    0.356666667   -4.244269497   33.409328892
    0.358333333   -4.294348343   26.679614010
    0.360000000   -4.333103220   19.835867311
    0.361666667   -4.360374731   12.838748553
    0.363333333   -4.375942563    5.838597451
    0.365000000   -4.380002330   -0.849654677
    0.366666667   -4.373264469   -7.184954056
    0.368333333   -4.356304950  -13.157065074
    0.370000000   -4.329612940  -18.777577173
    0.371666667   -4.293805098  -24.133813391
    0.373333333   -4.249368145  -29.159155941
    0.375000000   -4.196826144  -33.838460371
    0.376666667   -4.136678411  -38.275845046
    0.378333333   -4.069346814  -42.502536793
    0.380000000   -3.995134211  -46.558783817
    0.381666667   -3.914236373  -50.440276791
    0.383333333   -3.827122158  -54.046640853
    0.385000000   -3.734256717  -57.379968080
    0.386666667   -3.635991918  -60.477680959
    0.388333333   -3.532758121  -63.360728966
    0.390000000   -3.424878390  -66.085879024
    0.391666667   -3.312577711  -68.648278702
    0.393333333   -3.196137149  -71.034579028
    0.395000000   -3.075856656  -73.286660945
    0.396666667   -2.951939209  -75.415223170
    0.398333333   -2.824530714  -77.433509222
    0.400000000   -2.693864881  -79.337760850
    0.401666667   -2.560184186  -81.057282198
    0.403333333   -2.423793934  -82.571126925
    0.405000000   -2.285039235  -83.893714437
    0.406666667   -2.144249871  -85.030090056
    0.408333333   -2.001693904  -86.018278709
    0.410000000   -1.857595846  -86.863201096
    0.411666667   -1.712229458  -87.551731850
    0.413333333   -1.565830271  -88.114530396
    0.415000000   -1.418572802  -88.570813195
    0.416666667   -1.270633720  -88.941772103
    0.418333333   -1.122136517  -89.243204760
    0.420000000   -0.973219317  -89.434275437
    0.421666667   -0.824084906  -89.505975348
    0.423333333   -0.674918793  -89.475870219
    0.425000000   -0.525881262  -89.356382265
    0.426666667   -0.377080941  -89.200702616
    0.428333333   -0.228553772  -89.023900741
    0.430000000   -0.080358196  -88.800994999
    0.431666667    0.067432666  -88.544155625
    0.433333333    0.214773356  -88.256258774
    0.435000000    0.361603083  -87.932264273
    0.436666667    0.507866570  -87.574287882
    0.438333333    0.653462895  -87.118826082
    0.440000000    0.798182293  -86.515933122
    0.441666667    0.941772179  -85.757041909
    0.443333333    1.083943012  -84.830185900
    0.445000000    1.224463560  -83.775213256
    0.446666667    1.363140885  -82.605870169
    0.448333333    1.499741056  -81.295534046
    0.450000000    1.634044607  -79.852179912
    0.451666667    1.765846924  -78.279118730
    0.453333333    1.894918074  -76.581295273
    0.455000000    2.021060381  -74.787529723
    0.456666667    2.144142450  -72.884992792
    0.458333333    2.263962440  -70.857452542
    0.460000000    2.380274351  -68.720844603
    0.461666667    2.492961334  -66.494850588
    0.463333333    2.601920798  -64.240642758
    0.465000000    2.707120767  -62.007175740
    0.466666667    2.808611323  -59.797867526
    0.468333333    2.906468187  -57.628846544
    0.470000000    3.000753024  -55.505235554
    0.471666667    3.091507821  -53.429214943
    0.473333333    3.178874338  -51.420959217
    0.475000000    3.262962446  -49.471893551
    0.476666667    3.343803475  -47.556492761
    0.478333333    3.421485989  -45.674099483
    0.480000000    3.496074688  -43.825163020
    0.481666667    3.567603327  -42.014693563
    0.483333333    3.636144213  -40.254627147
    0.485000000    3.701803985  -38.538290290
    0.486666667    3.764644694  -36.861345022
    0.488333333    3.824703750  -35.234768561
    0.490000000    3.882106468  -33.657028735
    0.491666667    3.936926022  -32.119069619
    0.493333333    3.989197366  -30.618323670
    0.495000000    4.038989171  -29.140446927
    0.496666667    4.086341223  -27.679030417
    0.498333333    4.131280260  -26.245847361
    0.500000000    4.173826904  -24.817809542
    0.501666667    4.213986967  -23.369606790
    0.503333333    4.251727016  -21.895886342
    0.505000000    4.286952801  -20.385081499
    0.506666667    4.319669339  -18.885712810
    0.508333333    4.349936422  -17.430441642
    0.510000000    4.377786225  -15.993060901
    0.511666667    4.403250235  -14.572022559
    0.513333333    4.426346315  -13.131306566
    0.515000000    4.447006568  -11.651086786
    0.516666667    4.465200539  -10.198678507
    0.518333333    4.480995046   -8.745777741
    0.520000000    4.494323208   -7.226367006
    0.521666667    4.505060197   -5.659295680
    0.523333333    4.513144969   -4.039578397
    0.525000000    4.518564476   -2.488296025
    0.526666667    4.521575564   -1.163979017
    0.528333333    4.522555410   -0.046693658
    0.530000000    4.521839332    0.874926897
    0.531666667    4.519715180    1.666327916
    0.533333333    4.516308758    2.404576704
    0.535000000    4.511770531    3.020111978
    0.536666667    4.506282277    3.570204707
    0.538333333    4.499817407    4.199974774
    0.540000000    4.492218913    4.949066758
    0.541666667    4.483192928    5.928794137
    0.543333333    4.472356815    7.078004008
    0.545000000    4.459617740    8.201783547
    0.546666667    4.445004587    9.346772306
    0.548333333    4.428436425   10.556852451
    0.550000000    4.409676765   12.005392358
    0.551666667    4.388162903   13.883130208
    0.553333333    4.363235113   16.087670958
    0.555000000    4.334373661   18.587055453
    0.556666667    4.301095128   21.376924562
    0.558333333    4.263020808   24.359906771
    0.560000000    4.219776372   27.581585367
    0.561666667    4.171024095   30.866811430
    0.563333333    4.117059730   33.828234037
    0.565000000    4.058533196   36.339819506
    0.566666667    3.996247478   38.280172818
    0.568333333    3.931207796   39.707743542
    0.570000000    3.864066346   40.811040887
    0.571666667    3.795390982   41.520218417
    0.573333333    3.725910942   41.779839462
    0.575000000    3.656447354   41.462047396
    0.576666667    3.588073767   40.466998785
    0.578333333    3.521858846   38.926394965
    0.580000000    3.458608086   36.899312925
    0.581666667    3.399066152   34.470956253
    0.583333333    3.343845898   31.756202100
    0.585000000    3.293425077   28.721877170
    0.586666667    3.248153715   25.607335951
    0.588333333    3.207883268   22.757119197
    0.590000000    3.172064324   20.351446277
    0.591666667    3.139674067   18.638322437
    0.593333333    3.109624337   17.449248305
    0.595000000    3.081310229   16.613048981
    0.596666667    3.053988730   16.273680579
    0.598333333    3.026740610   16.549140578
    0.600000000    2.998112284   18.047376542
    0.601666667    2.965709147   21.072071557
    0.603333333    2.927194791   25.374938627
    0.605000000    2.880405841   30.999858790
    0.606666667    2.823183789   37.773479466
    0.608333333    2.753938226   45.549038775
    0.610000000    2.670689258   54.636444899
    0.611666667    2.571346220   64.500573123
    0.613333333    2.455599929   74.397032273
    0.615000000    2.323494773   84.122543289
    0.616666667    2.175522960   93.336343800
    0.618333333    2.012098611  102.908784479
    0.620000000    1.831933411  113.475447186
    0.621666667    1.633679953  124.527281751
    0.623333333    1.416568881  135.896221610
    0.625000000    1.181007164  146.597132061
    0.626666667    0.928727643  156.099460004
    0.628333333    0.660691827  165.439209628
    0.630000000    0.377448583  174.228522901
    0.631666667    0.080811444  181.618636829
    0.633333333   -0.227367026  187.957031213
    0.635000000   -0.545100926  193.113434466
    0.636666667   -0.871428062  198.979764310
    0.638333333   -1.210143649  208.146250928
    0.640000000   -1.567122586  220.528651022
    0.641666667   -1.947156317  236.056242134
    0.643333333   -2.355069775  253.855470696
    0.645000000   -2.793863927  272.799447649
    0.646666667   -3.266046015  294.153811573
    0.648333333   -3.775359834  317.283897350
    0.650000000   -4.323172740  340.072486719
    0.651666667   -4.908745228  362.119045287
    0.653333333   -5.529098653  381.895370701
    0.655000000   -6.180575180  400.281380849
    0.656666667   -6.864614005  420.591214709
    0.658333333   -7.583367979  441.800490680
    0.660000000   -8.336943850  462.641286504
    0.661666667   -9.123990286  480.975710804
    0.663333333   -9.937023027  493.484993609
    0.665000000  -10.766860899  501.937088977
    0.666666667  -11.607957360  506.616356277
    0.668333333  -12.451562801  504.426844942
    0.670000000  -13.286105790  495.851804361
    0.671666667  -14.100214833  479.694948475
    0.673333333  -14.881724295  458.206499532
    0.675000000  -15.629748511  440.273085671
    0.676666667  -16.352142360  427.179617844
    0.678333333  -17.055551245  417.750288118
    0.680000000  -17.746304099  411.060452073
    0.681666667  -18.424593410  402.221610810
    0.683333333  -19.086471038  392.324464356
    0.685000000  -19.732482272  382.678525835
    0.686666667  -20.359448476  368.409095088
    0.688333333  -20.957394992  347.830670751
    0.690000000  -21.512534000  316.493775376
    0.691666667  -22.005473915  273.833023684
    0.693333333  -22.424997792  229.403566597
    0.695000000  -22.769717847  183.903199254
    0.696666667  -23.035801295  135.263717790
    0.698333333  -23.217521922   80.387564234
    0.700000000  -23.294463316    7.784081622
