#! FIELDS dist ves.bias der_dist
#! SET min_dist 0.2
#! SET max_dist 0.7
#! SET nbins_dist  301
#! SET periodic_dist false
    0.200000000  -16.467966052 1750.077610745
    0.201666667  -19.366525808 1721.739270914
    0.203333333  -22.185370565 1653.843900840
    0.205000000  -24.857493404 1547.128130781
    0.206666667  -27.328670382 1414.357088539
    0.208333333  -29.553248216 1248.197173865
    0.210000000  -31.464400096 1037.964563925
    0.211666667  -32.993768739  790.158268318
    0.213333333  -34.079706207  511.106959105
    0.215000000  -34.695046040  230.076275667
    0.216666667  -34.861238978  -28.822184654
    0.218333333  -34.611670499 -264.963082545
    0.220000000  -33.992452299 -472.699088689
    0.221666667  -33.050575733 -654.739591598
    0.223333333  -31.823442647 -812.660540928
    0.225000000  -30.361900351 -934.520872900
    0.226666667  -28.725092193 -1026.383284058
    0.228333333  -26.949548616 -1101.925997518
    0.230000000  -25.060111242 -1163.118037126
    0.231666667  -23.077224085 -1215.058605260
    0.233333333  -21.019352108 -1249.834784461
    0.235000000  -18.927495110 -1255.792867616
    0.236666667  -16.846499557 -1238.389633628
    0.238333333  -14.810365488 -1201.792157328
    0.240000000  -12.844672249 -1156.445145773
    0.241666667  -10.955303418 -1111.193041472
    0.243333333   -9.143734973 -1061.847828609
    0.245000000   -7.415803344 -1011.405692278
    0.246666667   -5.769099511 -965.863205876
    0.248333333   -4.194593196 -924.879164550
    0.250000000   -2.681569771 -891.751994842
    0.251666667   -1.220260087 -860.578015761
    0.253333333    0.180305843 -818.330584441
    0.255000000    1.501059322 -764.787468200
    0.256666667    2.724291429 -700.757431309
    0.258333333    3.832452095 -628.980349063
    0.260000000    4.819293161 -554.958502057
    0.261666667    5.680199029 -476.185751197
    0.263333333    6.404398280 -393.321808086
    0.265000000    6.991690579 -312.271328269
    0.266666667    7.447385013 -234.912725748
    0.268333333    7.778982577 -164.340769436
    0.270000000    7.998914387 -100.518825710
    0.271666667    8.114278743  -37.883274752
    0.273333333    8.126598174   22.971075112
    0.275000000    8.040114284   79.698199353
    0.276666667    7.863529442  130.819863134
    0.278333333    7.609544387  172.586525427
    0.280000000    7.293179579  205.770975111
    0.281666667    6.927408913  231.714314552
    0.283333333    6.526104680  248.140787285
    0.285000000    6.105425734  255.199820571
    0.286666667    5.680894355  252.746912682
    0.288333333    5.267444374  242.535286969
    0.290000000    4.872567633  231.387199767
    0.291666667    4.495133497  221.927028795
    0.293333333    4.132211752  214.012116749
    0.295000000    3.780242478  208.526663600
    0.296666667    3.436565605  203.937277646
    0.298333333    3.099872021  200.648037505
    0.300000000    2.766065173  200.317185933
    0.301666667    2.431551781  200.967284912
    0.303333333    2.096468378  201.074585932
    0.305000000    1.761967840  200.080827373
    0.306666667    1.430440534  197.510765347
    0.308333333    1.102971975  195.791364189
    0.310000000    0.776866717  195.791917908
    0.311666667    0.449955140  196.602083472
    0.313333333    0.121140480  197.913290717
    0.315000000   -0.209130130  198.134501518
    0.316666667   -0.538347200  196.763181578
    0.318333333   -0.864658515  194.613181400
    0.320000000   -1.186285344  191.035030771
    0.321666667   -1.500316296  185.539118338
    0.323333333   -1.803770620  178.172540213
    0.325000000   -2.093100603  168.799732603
    0.326666667   -2.366138715  159.002358223
    0.328333333   -2.623594049  150.052598863
    0.330000000   -2.866803584  141.902864433
    0.331666667   -3.097167358  134.722792051
    0.333333333   -3.316068372  127.970678684
    0.335000000   -3.523831107  121.344640483
    0.336666667   -3.720982575  115.400644405
    0.338333333   -3.908676306  109.839077237
    0.340000000   -4.087006297  104.077248835
    0.341666667   -4.255460264   98.014476294
    0.343333333   -4.413385630   91.421785541
    0.345000000   -4.560060771   84.591010378
    0.346666667   -4.695558934   78.027981094
    0.348333333   -4.820212725   71.599744467
    0.350000000   -4.934227593   65.216346605
    0.351666667   -5.037572071   58.673828889
    0.353333333   -5.129593063   51.770029825
    0.355000000   -5.210003399   44.719930995
    0.356666667   -5.278609499   37.517303417
    0.358333333   -5.334920566   30.033877960
    0.360000000   -5.378565959   22.336082467
    0.361666667   -5.409224567   14.385461361
    0.363333333   -5.426547264    6.400675367
    0.365000000   -5.430776531   -1.185272483
    0.366666667   -5.422812919   -8.295644494
    0.368333333   -5.403470922  -14.881818403
    0.370000000   -5.373471660  -21.012637980
    0.371666667   -5.333541584  -26.834287485
    0.373333333   -5.284273855  -32.238004823
    0.375000000   -5.226357472  -37.186656739
    0.376666667   -5.160546177  -41.681360030
    0.378333333   -5.087673308  -45.707064465
    0.380000000   -5.008404709  -49.391003540
    0.381666667   -4.923224888  -52.721242013
    0.383333333   -4.832902520  -55.592025782
    0.385000000   -4.738158171  -58.050427695
    0.386666667   -4.639625140  -60.116045389
    0.388333333   -4.537874557  -61.978545515
    0.390000000   -4.432987049  -63.913215484
    0.391666667   -4.324767491  -65.973920406
    0.393333333   -4.212965664  -68.204340670
    0.395000000   -4.097362082  -70.525637889
    0.396666667   -3.977895734  -72.862149143
    0.398333333   -3.854407756  -75.323128581
    0.400000000   -3.726722012  -77.917828889
    0.401666667   -3.594617421  -80.654223183
    0.403333333   -3.457783195  -83.549215699
    0.405000000   -3.316089702  -86.470242387
    0.406666667   -3.169518417  -89.454506068
    0.408333333   -3.017813317  -92.627633090
    0.410000000   -2.860675268  -95.928738536
    0.411666667   -2.697985676  -99.309066410
    0.413333333   -2.529756208 -102.533191952
    0.415000000   -2.356467482 -105.303300205
    0.416666667   -2.178977973 -107.603270185
    0.418333333   -1.998078249 -109.397084870
    0.420000000   -1.814590982 -110.709680835
    0.421666667   -1.629270750 -111.591073749
    0.423333333   -1.442923836 -111.931251406
    0.425000000   -1.256447933 -111.763490972
    0.426666667   -1.070571657 -111.233785907
    0.428333333   -0.885856070 -110.378362735
    0.430000000   -0.702771461 -109.273225713
    0.431666667   -0.521764009 -107.872178581
    0.433333333   -0.343457739 -106.030436177
    0.435000000   -0.168536096 -103.807861448
    0.436666667    0.002412765 -101.273791742
    0.438333333    0.168929773  -98.550373659
    0.440000000    0.330886149  -95.788920403
    0.441666667    0.488216609  -92.962311462
    0.443333333    0.640742597  -90.098740950
    0.445000000    0.788558031  -87.296232136
    0.446666667    0.931780500  -84.563353188
    0.448333333    1.070518885  -81.952961261
    0.450000000    1.204992115  -79.419859348
    0.451666667    1.335186728  -76.777949832
    0.453333333    1.460866849  -74.010527165
    0.455000000    1.581837232  -71.157607317
    0.456666667    1.698005440  -68.236671615
    0.458333333    1.809332090  -65.332160590
    0.460000000    1.915787835  -62.437362921
    0.461666667    2.017432010  -59.548863297
    0.463333333    2.114368083  -56.785850582
    0.465000000    2.206834759  -54.211451493
    0.466666667    2.295188805  -51.866471725
    0.468333333    2.379860637  -49.766427515
    0.470000000    2.461174451  -47.818191840
    0.471666667    2.539329810  -46.012368497
    0.473333333    2.614646621  -44.397437949
    0.475000000    2.687438307  -42.973967597
    0.476666667    2.758024964  -41.780165379
    0.478333333    2.826821509  -40.806620536
    0.480000000    2.894143278  -40.003366209
    0.481666667    2.960292996  -39.419829146
    0.483333333    3.025677821  -39.080039770
    0.485000000    3.090677806  -38.951113506
    0.486666667    3.155618182  -39.000908178
    0.488333333    3.220700343  -39.092054888
    0.490000000    3.285898555  -39.135952095
    0.491666667    3.351141239  -39.147419158
    0.493333333    3.416348521  -39.086036735
    0.495000000    3.481367312  -38.920579747
    0.496666667    3.546030993  -38.650681191
    0.498333333    3.610126567  -38.238239492
    0.500000000    3.673435130  -37.733885687
    0.501666667    3.735910744  -37.237638044
    0.503333333    3.797567749  -36.739683545
    0.505000000    3.858368805  -36.225913266
    0.506666667    3.918297368  -35.680108018
    0.508333333    3.977262980  -35.058651194
    0.510000000    4.035136095  -34.382388111
    0.511666667    4.091828058  -33.633423983
    0.513333333    4.147151050  -32.717202658
    0.515000000    4.200787526  -31.605328321
    0.516666667    4.252385661  -30.288255095
    0.518333333    4.301625487  -28.772410706
    0.520000000    4.348238512  -27.127290265
    0.521666667    4.391983817  -25.353321088
    0.523333333    4.432642482  -23.419585315
    0.525000000    4.469986924  -21.363693520
    0.526666667    4.503806996  -19.199743483
    0.528333333    4.533935501  -16.962382398
    0.530000000    4.560321197  -14.685294652
    0.531666667    4.582835520  -12.282517192
    0.533333333    4.601180059   -9.735042753
    0.535000000    4.615212967   -7.093710088
    0.536666667    4.624805273   -4.393405404
    0.538333333    4.629910756   -1.768619516
    0.540000000    4.630758843    0.726684922
    0.541666667    4.627522320    3.154174481
    0.543333333    4.620331589    5.448701807
    0.545000000    4.609468620    7.544364972
    0.546666667    4.595279490    9.447451767
    0.548333333    4.578114203   11.135696660
    0.550000000    4.558187238   12.775486208
    0.551666667    4.535451522   14.523819388
    0.553333333    4.509736656   16.357029694
    0.555000000    4.480881865   18.273157869
    0.556666667    4.448823060   20.177577521
    0.558333333    4.413672354   21.998860794
    0.560000000    4.375519446   23.784531049
    0.561666667    4.334443940   25.463991039
    0.563333333    4.290751594   26.929417810
    0.565000000    4.244833416   28.127382360
    0.566666667    4.197201070   28.962453497
    0.568333333    4.148466284   29.477067404
    0.570000000    4.099078005   29.743566726
    0.571666667    4.049455114   29.766743058
    0.573333333    3.999988470   29.550562050
    0.575000000    3.951169649   28.947679926
    0.576666667    3.903732396   27.894358971
    0.578333333    3.858450389   26.388117658
    0.580000000    3.816010091   24.494683028
    0.581666667    3.776821889   22.511137386
    0.583333333    3.740958161   20.541054109
    0.585000000    3.708373363   18.583315918
    0.586666667    3.678949598   16.712909480
    0.588333333    3.652655889   14.832500909
    0.590000000    3.629439396   13.119249830
    0.591666667    3.608654464   11.896318630
    0.593333333    3.589527918   11.104010391
    0.595000000    3.571335051   10.849315957
    0.596666667    3.553121196   11.069788481
    0.598333333    3.534137015   11.851267943
    0.600000000    3.512733896   14.145137141
    0.601666667    3.485971105   18.274214701
    0.603333333    3.450735567   24.369800679
    0.605000000    3.403673124   32.356856351
    0.606666667    3.342494278   41.072452463
    0.608333333    3.266410020   50.404049514
    0.610000000    3.173906100   60.844650950
    0.611666667    3.063066538   72.250086159
    0.613333333    2.932239737   84.991570318
    0.615000000    2.779333272   98.556479697
    0.616666667    2.603807534  112.080245522
    0.618333333    2.404985508  126.780322970
    0.620000000    2.180399263  142.967147938
    0.621666667    1.927715481  160.579991733
    0.623333333    1.644472615  179.083784640
    0.625000000    1.332261704  194.917775328
    0.626666667    0.997020752  206.848251893
    0.628333333    0.644467246  215.587080129
    0.630000000    0.280227613  221.118696501
    0.631666667   -0.091785186  225.205127778
    0.633333333   -0.469968115  228.169811124
    0.635000000   -0.850972641  228.794022123
    0.636666667   -1.232487894  229.322920596
    0.638333333   -1.616367707  231.555260545
    0.640000000   -2.006180079  236.887428492
    0.641666667   -2.408475241  246.511818625
    0.643333333   -2.827932379  256.588624445
    0.645000000   -3.263275175  265.648249179
    0.646666667   -3.713602001  274.828014680
    0.648333333   -4.179609599  284.962208309
    0.650000000   -4.667004539  301.230505765
    0.651666667   -5.188264877  325.015010825
    0.653333333   -5.752587942  352.999780584
    0.655000000   -6.367260647  385.803952219
    0.656666667   -7.041348550  423.062064367
    0.658333333   -7.779543555  463.502358767
    0.660000000   -8.588081961  507.378619829
    0.661666667   -9.468567729  547.468009476
    0.663333333  -10.407473045  577.217597026
    0.665000000  -11.385909135  594.867624223
    0.666666667  -12.382409289  598.718968610
    0.668333333  -13.376945900  593.644392584
    0.670000000  -14.357348645  581.477836717
    0.671666667  -15.309339821  558.868335802
    0.673333333  -16.214512764  525.645576777
    0.675000000  -17.054329002  480.003763681
    0.676666667  -17.807499250  421.911459270
    0.678333333  -18.456655279  355.649949321
    0.680000000  -18.987183670  279.245080940
    0.681666667  -19.380214250  190.455829690
    0.683333333  -19.617108269   91.265081420
    0.685000000  -19.679311803  -16.639160753
    0.686666667  -19.561506301 -123.309595816
    0.688333333  -19.274019541 -220.734170662
    0.690000000  -18.831474643 -308.225277287
    0.691666667  -18.252832266 -383.872322892
    0.693333333  -17.557299783 -449.572661399
    0.695000000  -16.759519160 -506.032651084
    0.696666667  -15.878184443 -549.033357880
    0.698333333  -14.935745694 -580.373537855
    0.700000000  -13.948011537 -603.720730549
