#! FIELDS dist ves.bias der_dist
#! SET min_dist 0.2
#! SET max_dist 0.7
#! SET nbins_dist  301
#! SET periodic_dist false
    0.200000000  -24.936635096 2085.011225098
    0.201666667  -28.377527083 2036.515620938
    0.203333333  -31.697449880 1938.534322090
    0.205000000  -34.811619207 1791.262012421
    0.206666667  -37.650850694 1610.701602939
    0.208333333  -40.157029172 1388.557853547
    0.210000000  -42.250010325 1114.592030042
    0.211666667  -43.849673173  796.200373065
    0.213333333  -44.881741043  440.419908254
    0.215000000  -45.316151419   84.887989392
    0.216666667  -45.184310593 -240.405675941
    0.218333333  -44.533251165 -532.966683411
    0.220000000  -43.428305078 -785.716048407
    0.221666667  -41.932595086 -1005.550183116
    0.223333333  -40.093618785 -1194.684158984
    0.225000000  -37.976276206 -1337.677233053
    0.226666667  -35.656639909 -1440.915543935
    0.228333333  -33.187939105 -1517.226785795
    0.230000000  -30.613363302 -1568.877722575
    0.231666667  -27.967052262 -1604.170574348
    0.233333333  -25.280552228 -1612.716389990
    0.235000000  -22.614127203 -1581.001334241
    0.236666667  -20.029699762 -1515.923516867
    0.238333333  -17.576469541 -1423.400213944
    0.240000000  -15.288533192 -1322.130110402
    0.241666667  -13.166404138 -1226.234962647
    0.243333333  -11.201516751 -1131.673351384
    0.245000000   -9.389632878 -1042.964319829
    0.246666667   -7.718680330 -964.554332764
    0.248333333   -6.170462253 -895.914342704
    0.250000000   -4.722915697 -843.269303955
    0.251666667   -3.353827508 -799.211837597
    0.253333333   -2.063456896 -748.318504390
    0.255000000   -0.863942164 -689.669678135
    0.256666667    0.231339136 -622.640087494
    0.258333333    1.209735793 -552.589734036
    0.260000000    2.075326367 -486.883553492
    0.261666667    2.833397023 -421.715338639
    0.263333333    3.481405281 -356.664876386
    0.265000000    4.022709192 -293.409286803
    0.266666667    4.460092103 -231.525713050
    0.268333333    4.797907000 -174.843944635
    0.270000000    5.045223366 -122.354625393
    0.271666667    5.204384165  -68.222955076
    0.273333333    5.272490479  -12.996810777
    0.275000000    5.247788429   42.171156390
    0.276666667    5.133147476   94.072717271
    0.278333333    4.939710746  136.706948652
    0.280000000    4.682574947  170.519546918
    0.281666667    4.375451357  196.468429535
    0.283333333    4.032529003  213.626132398
    0.285000000    3.667592964  223.089827770
    0.286666667    3.293931625  223.858784211
    0.288333333    2.925534383  217.406867459
    0.290000000    2.569533359  209.809471346
    0.291666667    2.225599715  203.212976255
    0.293333333    1.891573723  197.998598451
    0.295000000    1.564389911  194.647111000
    0.296666667    1.242904488  191.017385829
    0.298333333    0.927723280  187.527739860
    0.300000000    0.616839346  185.714419940
    0.301666667    0.308376345  184.341259793
    0.303333333    0.002481673  182.756011747
    0.305000000   -0.300334626  180.419262421
    0.306666667   -0.598276201  176.935220880
    0.308333333   -0.890789384  174.420552828
    0.310000000   -1.180548537  173.549211172
    0.311666667   -1.469817049  173.716944913
    0.313333333   -1.760114890  174.610718483
    0.315000000   -2.051292195  174.556188253
    0.316666667   -2.341108740  173.073145390
    0.318333333   -2.627883891  170.870028353
    0.320000000   -2.909984222  167.401730633
    0.321666667   -3.184970052  162.377131736
    0.323333333   -3.450455629  155.837384534
    0.325000000   -3.703496804  147.636124653
    0.326666667   -3.942408366  139.228935730
    0.328333333   -4.168132090  131.771699643
    0.330000000   -4.382176437  125.202053854
    0.331666667   -4.586076216  119.669207147
    0.333333333   -4.781344394  114.693670786
    0.335000000   -4.968533101  109.966106806
    0.336666667   -5.148357662  105.972726133
    0.338333333   -5.321974723  102.362382258
    0.340000000   -5.489384618   98.441350437
    0.341666667   -5.649879843   94.073370331
    0.343333333   -5.802574235   89.053037625
    0.345000000   -5.946490083   83.622122528
    0.346666667   -6.081402685   78.270338542
    0.348333333   -6.207328328   72.833480172
    0.350000000   -6.324060068   67.209938002
    0.351666667   -6.431276079   61.330125780
    0.353333333   -6.528255001   55.052416842
    0.355000000   -6.614645306   48.609222881
    0.356666667   -6.690230494   41.993810101
    0.358333333   -6.754383876   34.935569203
    0.360000000   -6.806425060   27.486099142
    0.361666667   -6.845808226   19.685631431
    0.363333333   -6.872014906   11.750429135
    0.365000000   -6.885164335    4.169969305
    0.366666667   -6.886103587   -2.992818304
    0.368333333   -6.875463090   -9.762807358
    0.370000000   -6.853826340  -16.074630582
    0.371666667   -6.822032603  -22.000966665
    0.373333333   -6.780782427  -27.441257017
    0.375000000   -6.730872131  -32.380778614
    0.376666667   -6.672926624  -37.105752821
    0.378333333   -6.607240155  -41.717234723
    0.380000000   -6.533960528  -46.243659897
    0.381666667   -6.453122293  -50.682967963
    0.383333333   -6.365146068  -54.830678013
    0.385000000   -6.270557052  -58.671789285
    0.386666667   -6.169694566  -62.298784847
    0.388333333   -6.062997265  -65.683178845
    0.390000000   -5.950875687  -68.848790888
    0.391666667   -5.833661069  -71.761009386
    0.393333333   -5.711831093  -74.366995982
    0.395000000   -5.585851682  -76.796967159
    0.396666667   -5.455935804  -79.103665287
    0.398333333   -5.322243878  -81.276479502
    0.400000000   -5.185067442  -83.292562925
    0.401666667   -5.044808128  -84.963042798
    0.403333333   -4.902095717  -86.223751097
    0.405000000   -4.757563810  -87.150422367
    0.406666667   -4.611781650  -87.736546465
    0.408333333   -4.465275573  -88.030918400
    0.410000000   -4.318485541  -88.061879813
    0.411666667   -4.171893537  -87.805687969
    0.413333333   -4.025872047  -87.414286921
    0.415000000   -3.880503197  -87.033362082
    0.416666667   -3.735722255  -86.718345395
    0.418333333   -3.591371963  -86.518149220
    0.420000000   -3.447332875  -86.317106172
    0.421666667   -3.303670873  -86.073191109
    0.423333333   -3.160398127  -85.860790181
    0.425000000   -3.017442469  -85.700040795
    0.426666667   -2.874645019  -85.685518173
    0.428333333   -2.731720697  -85.839554839
    0.430000000   -2.588474925  -86.071662531
    0.431666667   -2.444750270  -86.422822055
    0.433333333   -2.300299762  -86.932060845
    0.435000000   -2.154904862  -87.568885146
    0.436666667   -2.008341255  -88.320274898
    0.438333333   -1.860550398  -88.980797047
    0.440000000   -1.711878291  -89.376581955
    0.441666667   -1.562789326  -89.482137261
    0.443333333   -1.413798121  -89.256186988
    0.445000000   -1.265392675  -88.795836727
    0.446666667   -1.117912859  -88.133417146
    0.448333333   -0.971783207  -87.176502156
    0.450000000   -0.827480836  -85.946864720
    0.451666667   -0.685424865  -84.466550851
    0.453333333   -0.546049923  -82.747355342
    0.455000000   -0.409691529  -80.871403698
    0.456666667   -0.276600622  -78.782704091
    0.458333333   -0.147216420  -76.410718094
    0.460000000   -0.022035160  -73.796382597
    0.461666667    0.098636666  -70.988824018
    0.463333333    0.214610640  -68.177305037
    0.465000000    0.325988778  -65.507400156
    0.466666667    0.433022914  -62.969089026
    0.468333333    0.535980837  -60.598898630
    0.470000000    0.635128544  -58.386688244
    0.471666667    0.730677141  -56.322922802
    0.473333333    0.822983847  -54.479331362
    0.475000000    0.912387765  -52.803405597
    0.476666667    0.999027412  -51.186779859
    0.478333333    1.083020741  -49.613473865
    0.480000000    1.164419332  -48.054146385
    0.481666667    1.243252863  -46.569815773
    0.483333333    1.319731523  -45.237306248
    0.485000000    1.394097255  -44.008313368
    0.486666667    1.466484707  -42.856461355
    0.488333333    1.536962460  -41.726838842
    0.490000000    1.605543653  -40.567318900
    0.491666667    1.672207123  -39.420244657
    0.493333333    1.736941926  -38.256537818
    0.495000000    1.799659919  -36.994202062
    0.496666667    1.860207411  -35.637305286
    0.498333333    1.918407421  -34.179416586
    0.500000000    1.974104754  -32.677604852
    0.501666667    2.027370550  -31.254886000
    0.503333333    2.078342310  -29.899106728
    0.505000000    2.127059738  -28.585777823
    0.506666667    2.173644384  -27.326916132
    0.508333333    2.218165259  -26.089341062
    0.510000000    2.260644628  -24.896647274
    0.511666667    2.301161005  -23.723187149
    0.513333333    2.339643567  -22.421096384
    0.515000000    2.375813009  -20.942279498
    0.516666667    2.409350324  -19.285148003
    0.518333333    2.439982093  -17.451432242
    0.520000000    2.467490216  -15.527603525
    0.521666667    2.491699114  -13.514862351
    0.523333333    2.512442336  -11.365512504
    0.525000000    2.529545545   -9.137848439
    0.526666667    2.542888735   -6.862792164
    0.528333333    2.552410249   -4.584478032
    0.530000000    2.558185830   -2.343566553
    0.531666667    2.560191798   -0.018647517
    0.533333333    2.558181724    2.422762097
    0.535000000    2.552064084    4.922474278
    0.536666667    2.541770888    7.441537457
    0.538333333    2.527357565    9.805601145
    0.540000000    2.509195170   11.955157733
    0.541666667    2.487568812   13.980656500
    0.543333333    2.462711233   15.810426815
    0.545000000    2.435012097   17.383553480
    0.546666667    2.404893556   18.709231195
    0.548333333    2.372814804   19.753778261
    0.550000000    2.339074450   20.749925398
    0.551666667    2.303551659   21.902511260
    0.553333333    2.265991735   23.197785421
    0.555000000    2.226135552   24.643596939
    0.556666667    2.183861960   26.059025876
    0.558333333    2.139347554   27.347174134
    0.560000000    2.092713155   28.613319042
    0.561666667    2.044023884   29.780378190
    0.563333333    1.993543381   30.769612460
    0.565000000    1.941578054   31.532863172
    0.566666667    1.888667913   31.889726510
    0.568333333    1.835438830   31.971514994
    0.570000000    1.782143648   31.952647999
    0.571666667    1.728992327   31.809932889
    0.573333333    1.676182471   31.533108696
    0.575000000    1.624172657   30.747553685
    0.576666667    1.574086102   29.220136839
    0.578333333    1.527133547   27.049223485
    0.580000000    1.484284858   24.292929755
    0.581666667    1.446261098   21.286952970
    0.583333333    1.413341601   18.209236095
    0.585000000    1.385731562   14.920608807
    0.586666667    1.363576286   11.680827076
    0.588333333    1.346579828    8.754167198
    0.590000000    1.334125625    6.359540154
    0.591666667    1.324874064    4.899295421
    0.593333333    1.317424273    4.064737940
    0.595000000    1.311109307    3.611902934
    0.596666667    1.305123733    3.669730017
    0.598333333    1.298540947    4.381640686
    0.600000000    1.289507133    6.816845819
    0.601666667    1.274557512   11.469079286
    0.603333333    1.250252367   18.043236998
    0.605000000    1.213348587   26.551700719
    0.606666667    1.160945631   36.432177362
    0.608333333    1.091285090   47.434467312
    0.610000000    1.002031882   60.015480794
    0.611666667    0.890718536   73.451437536
    0.613333333    0.757091665   86.902473462
    0.615000000    0.601323206   99.940493387
    0.616666667    0.424618726  111.904770018
    0.618333333    0.228129049  124.023428601
    0.620000000    0.010704491  137.046005717
    0.621666667   -0.228787989  150.426933331
    0.623333333   -0.490856693  163.815907697
    0.625000000   -0.773731146  175.162336697
    0.626666667   -1.072969499  183.588700023
    0.628333333   -1.384842662  190.311276247
    0.630000000   -1.706268579  195.014278487
    0.631666667   -2.033599142  197.544850987
    0.633333333   -2.363883905  198.367880137
    0.635000000   -2.693601287  197.020774540
    0.636666667   -3.020730170  196.032508525
    0.638333333   -3.348937991  198.406095717
    0.640000000   -3.684349447  204.658626638
    0.641666667   -4.033649007  215.226954060
    0.643333333   -4.402862055  228.083659414
    0.645000000   -4.794366890  241.823048620
    0.646666667   -5.210513491  257.945818917
    0.648333333   -5.655305452  276.278657845
    0.650000000   -6.132582027  296.970633721
    0.651666667   -6.646919870  320.201838410
    0.653333333   -7.200036280  343.582339488
    0.655000000   -7.792375891  368.026530576
    0.656666667   -8.429005815  396.025285632
    0.658333333   -9.114086456  426.326763804
    0.660000000   -9.850699940  458.027442514
    0.661666667  -10.639105479  486.853694714
    0.663333333  -11.469339873  507.860967730
    0.665000000  -12.328132058  521.715317564
    0.666666667  -13.203994978  527.996934999
    0.668333333  -14.083552936  526.146002514
    0.670000000  -14.954094046  517.170104311
    0.671666667  -15.802285456  498.936418196
    0.673333333  -16.612719281  473.046607509
    0.675000000  -17.378236075  445.453715059
    0.676666667  -18.097208107  417.101860727
    0.678333333  -18.768572175  388.668624905
    0.680000000  -19.391997374  358.752946696
    0.681666667  -19.961023203  322.920040022
    0.683333333  -20.466237007  282.675786465
    0.685000000  -20.901601430  239.589875970
    0.686666667  -21.262986406  193.667373631
    0.688333333  -21.546973356  146.548936436
    0.690000000  -21.748951980   95.230043722
    0.691666667  -21.861671106   39.969331491
    0.693333333  -21.883906480  -12.977783697
    0.695000000  -21.819975834  -63.365801095
    0.696666667  -21.673849806 -111.194447495
    0.698333333  -21.449381489 -159.370373156
    0.700000000  -21.137407332 -217.561591507
