#! FIELDS dist ves.bias der_dist
#! SET min_dist 0.2
#! SET max_dist 0.7
#! SET nbins_dist  301
#! SET periodic_dist false
    0.200000000  -15.617325518 1317.907723087
    0.201666667  -17.794605100 1290.382770378
    0.203333333  -19.903189606 1234.972689841
    0.205000000  -21.895803369 1152.155535720
    0.206666667  -23.733954323 1050.856886998
    0.208333333  -25.385347357  925.983366957
    0.210000000  -26.803064556  770.171908615
    0.211666667  -27.939077839  588.006795691
    0.213333333  -28.750042796  383.914008934
    0.215000000  -29.216974227  178.309791265
    0.216666667  -29.354654928  -11.931780936
    0.218333333  -29.185941665 -186.502127079
    0.220000000  -28.742851839 -341.414817420
    0.221666667  -28.058221687 -478.199358306
    0.223333333  -27.158404712 -597.933834968
    0.225000000  -26.079267391 -692.276771807
    0.226666667  -24.862525964 -765.614466470
    0.228333333  -23.533248163 -828.054197596
    0.230000000  -22.107704157 -880.931950017
    0.231666667  -20.599947255 -927.514187637
    0.233333333  -19.022580710 -962.252506017
    0.235000000  -17.403981466 -976.729409967
    0.236666667  -15.775943701 -974.770929060
    0.238333333  -14.162458050 -959.158031558
    0.240000000  -12.582381214 -936.264903721
    0.241666667  -11.042249546 -911.814305873
    0.243333333   -9.546174453 -882.553360929
    0.245000000   -8.101609599 -850.490195470
    0.246666667   -6.709583042 -820.578255386
    0.248333333   -5.365845948 -792.589237000
    0.250000000   -4.065326720 -768.469781632
    0.251666667   -2.803967218 -743.944270175
    0.253333333   -1.591506354 -709.378706078
    0.255000000   -0.445056468 -664.811871187
    0.256666667    0.619972234 -611.258667949
    0.258333333    1.588202301 -550.292323301
    0.260000000    2.452065707 -485.863862844
    0.261666667    3.205392225 -416.334359347
    0.263333333    3.837508762 -342.547504491
    0.265000000    4.347576135 -270.316736056
    0.266666667    4.740664524 -201.744005508
    0.268333333    5.023771190 -139.173383853
    0.270000000    5.207999773  -82.824540949
    0.271666667    5.300506583  -28.267583631
    0.273333333    5.303847328   23.981640297
    0.275000000    5.223184571   71.713321016
    0.276666667    5.067336579  114.129880638
    0.278333333    4.847346654  148.701896028
    0.280000000    4.575746959  176.159601523
    0.281666667    4.263209279  197.714060385
    0.283333333    3.921233629  211.160454442
    0.285000000    3.563850235  216.410214783
    0.286666667    3.204498908  213.564564847
    0.288333333    2.855787166  204.174953543
    0.290000000    2.523930561  194.142509726
    0.291666667    2.207626567  185.789225887
    0.293333333    1.904060197  178.885538050
    0.295000000    1.609936173  174.268007017
    0.296666667    1.322474444  170.785138589
    0.298333333    1.039948454  168.779796249
    0.300000000    0.758240660  169.676840014
    0.301666667    0.473723042  171.653679349
    0.303333333    0.186264355  173.244442734
    0.305000000   -0.103231367  173.955020245
    0.306666667   -0.392809462  173.354481896
    0.308333333   -0.681669348  173.569091030
    0.310000000   -0.972249507  175.356233594
    0.311666667   -1.266517163  177.864837047
    0.313333333   -1.565456153  180.801172507
    0.315000000   -1.868640774  182.761845287
    0.316666667   -2.173798622  183.283075333
    0.318333333   -2.479231953  183.063541757
    0.320000000   -2.783290423  181.507615493
    0.321666667   -3.083217912  178.153915772
    0.323333333   -3.376195535  173.029572629
    0.325000000   -3.658914883  166.003259916
    0.326666667   -3.929206022  158.453799142
    0.328333333   -4.187433061  151.492807468
    0.330000000   -4.434517462  145.072992839
    0.331666667   -4.671416218  139.340169737
    0.333333333   -4.899065465  133.824123205
    0.335000000   -5.117491970  128.263592006
    0.336666667   -5.326900260  123.143399133
    0.338333333   -5.528046981  118.216125760
    0.340000000   -5.720793059  112.986570639
    0.341666667   -5.904482300  107.379605819
    0.343333333   -6.078379190  101.218390602
    0.345000000   -6.241704778   94.753488597
    0.346666667   -6.394350682   88.423603627
    0.348333333   -6.536446932   82.119606107
    0.350000000   -6.668036517   75.773223469
    0.351666667   -6.788996464   69.262949178
    0.353333333   -6.898728233   62.441446573
    0.355000000   -6.997009524   55.495686607
    0.356666667   -7.083681215   48.423092542
    0.358333333   -7.158276655   41.065544570
    0.360000000   -7.220395049   33.473719150
    0.361666667   -7.269723689   25.652995382
    0.363333333   -7.305922508   17.772310978
    0.365000000   -7.329124577   10.197936223
    0.366666667   -7.340067544    2.980098279
    0.368333333   -7.339313126   -3.884327197
    0.370000000   -7.327342821  -10.367555310
    0.371666667   -7.304864749  -16.538669406
    0.373333333   -7.272453256  -22.317405828
    0.375000000   -7.230733138  -27.686224359
    0.376666667   -7.180261049  -32.818313252
    0.378333333   -7.121427923  -37.769222711
    0.380000000   -7.054492796  -42.568527376
    0.381666667   -6.979605463  -47.208546133
    0.383333333   -6.897264599  -51.542701228
    0.385000000   -6.808001909  -55.563839987
    0.386666667   -6.712198209  -59.331154322
    0.388333333   -6.610342062  -62.841854404
    0.390000000   -6.502847215  -66.137999565
    0.391666667   -6.390033190  -69.197249749
    0.393333333   -6.272328135  -71.984775613
    0.395000000   -6.150168662  -74.589368810
    0.396666667   -6.023808516  -77.041619825
    0.398333333   -5.893443654  -79.343380537
    0.400000000   -5.759389845  -81.479824304
    0.401666667   -5.622028831  -83.307987631
    0.403333333   -5.481902290  -84.782325010
    0.405000000   -5.339572657  -85.953729025
    0.406666667   -5.195555702  -86.823615264
    0.408333333   -5.050304481  -87.444506094
    0.410000000   -4.904194765  -87.836641466
    0.411666667   -4.757649427  -87.980430666
    0.413333333   -4.611005049  -87.982912431
    0.415000000   -4.464396167  -87.939649909
    0.416666667   -4.317866724  -87.899118039
    0.418333333   -4.171370329  -87.901786947
    0.420000000   -4.024892785  -87.853297700
    0.421666667   -3.878567307  -87.725784012
    0.423333333   -3.732481007  -87.574878695
    0.425000000   -3.586653717  -87.423701997
    0.426666667   -3.441007554  -87.372777944
    0.428333333   -3.295333397  -87.447086183
    0.430000000   -3.149491080  -87.575319303
    0.431666667   -3.003366208  -87.792402779
    0.433333333   -2.856778656  -88.121178971
    0.435000000   -2.709576122  -88.543016504
    0.436666667   -2.561584217  -89.056775256
    0.438333333   -2.412762031  -89.489270730
    0.440000000   -2.263403415  -89.700056209
    0.441666667   -2.113895494  -89.667760206
    0.443333333   -1.964671497  -89.361128007
    0.445000000   -1.816113282  -88.885643029
    0.446666667   -1.668450377  -88.275798518
    0.448333333   -1.521985885  -87.448418711
    0.450000000   -1.377068105  -86.423575257
    0.451666667   -1.234005909  -85.208024379
    0.453333333   -1.093135982  -83.811956658
    0.455000000   -0.954686060  -82.323458383
    0.456666667   -0.818813289  -80.677500416
    0.458333333   -0.685872065  -78.798698568
    0.460000000   -0.556259504  -76.728556271
    0.461666667   -0.430213834  -74.511830794
    0.463333333   -0.307835892  -72.356694937
    0.465000000   -0.188889880  -70.420304319
    0.466666667   -0.073013141  -68.670595059
    0.468333333    0.040138182  -67.140870098
    0.470000000    0.150920044  -65.818387501
    0.471666667    0.259626417  -64.679805234
    0.473333333    0.366667412  -63.810271130
    0.475000000    0.472442196  -63.121346122
    0.476666667    0.577069767  -62.439094364
    0.478333333    0.680557040  -61.739179396
    0.480000000    0.782839318  -60.979593531
    0.481666667    0.883851273  -60.262254110
    0.483333333    0.983808783  -59.717174219
    0.485000000    1.082957636  -59.263256234
    0.486666667    1.181397296  -58.868287858
    0.488333333    1.279175014  -58.459858693
    0.490000000    1.376203020  -57.964158976
    0.491666667    1.472421340  -57.499014062
    0.493333333    1.567864753  -57.015557311
    0.495000000    1.662346711  -56.335269665
    0.496666667    1.755560285  -55.480019311
    0.498333333    1.847185037  -54.432806391
    0.500000000    1.936973297  -53.360083749
    0.501666667    2.025215230  -52.582269619
    0.503333333    2.112408818  -52.071130838
    0.505000000    2.198911531  -51.776810927
    0.506666667    2.285078823  -51.638292053
    0.508333333    2.371043335  -51.513142701
    0.510000000    2.456862337  -51.490707625
    0.511666667    2.542695256  -51.492114445
    0.513333333    2.628331756  -51.206163821
    0.515000000    2.713184332  -50.530664024
    0.516666667    2.796453610  -49.305791744
    0.518333333    2.877231051  -47.577619960
    0.520000000    2.954979310  -45.667769261
    0.521666667    3.029340747  -43.531360566
    0.523333333    3.099875050  -41.070157440
    0.525000000    3.166000091  -38.149713094
    0.526666667    3.226653622  -34.505238608
    0.528333333    3.280668566  -30.270964500
    0.530000000    3.327277569  -25.560373662
    0.531666667    3.365611300  -20.298675384
    0.533333333    3.394700769  -14.598074723
    0.535000000    3.413945636   -8.429490368
    0.536666667    3.422686276   -2.007354924
    0.538333333    3.420900866    4.026439352
    0.540000000    3.409549941    9.455048799
    0.541666667    3.389780182   14.154451814
    0.543333333    3.362825860   18.122949321
    0.545000000    3.329582904   21.671525145
    0.546666667    3.290847725   24.696524898
    0.548333333    3.247668912   27.039804833
    0.550000000    3.201139728   28.643293119
    0.551666667    3.152655224   29.387142951
    0.553333333    3.103531137   29.476145099
    0.555000000    3.054730553   28.980624906
    0.556666667    3.007396515   27.684690634
    0.558333333    2.962824203   25.668426134
    0.560000000    2.922238402   22.908152090
    0.561666667    2.886763732   19.684378322
    0.563333333    2.856449167   16.758872911
    0.565000000    2.830605740   14.312401744
    0.566666667    2.808447730   12.409615487
    0.568333333    2.788980735   10.980779529
    0.570000000    2.771780627    9.662254168
    0.571666667    2.756590478    8.669903351
    0.573333333    2.742607599    8.181480543
    0.575000000    2.729084420    8.109198719
    0.576666667    2.715267069    8.560980625
    0.578333333    2.700498548    9.161703527
    0.580000000    2.684648580    9.929959097
    0.581666667    2.666871707   11.580201951
    0.583333333    2.645590196   14.091915247
    0.585000000    2.619439908   17.407183299
    0.586666667    2.587307342   21.095438389
    0.588333333    2.549654721   23.921320241
    0.590000000    2.508105001   25.846833963
    0.591666667    2.463778596   27.209214175
    0.593333333    2.417735522   27.977622040
    0.595000000    2.370599129   28.600054354
    0.596666667    2.322711043   28.712348929
    0.598333333    2.275177096   28.302505945
    0.600000000    2.227810145   28.794041814
    0.601666667    2.178512538   30.618747624
    0.603333333    2.124696290   34.305648467
    0.605000000    2.063112326   39.737505584
    0.606666667    1.992512341   44.849009224
    0.608333333    1.913817472   49.615910471
    0.610000000    1.826832608   54.833965910
    0.611666667    1.730680360   60.777204374
    0.613333333    1.623017243   68.856356093
    0.615000000    1.500288216   78.489068465
    0.616666667    1.361207247   88.534241429
    0.618333333    1.203970741  100.622296203
    0.620000000    1.024590813  114.978551749
    0.621666667    0.819330594  131.856264579
    0.623333333    0.583848033  150.556533425
    0.625000000    0.319454002  165.852565685
    0.626666667    0.033920822  176.022308595
    0.628333333   -0.264909635  181.743349506
    0.630000000   -0.569329401  183.150673488
    0.631666667   -0.874786263  183.367321886
    0.633333333   -1.180325433  182.772710453
    0.635000000   -1.482412037  179.538023396
    0.636666667   -1.778687384  176.318344961
    0.638333333   -2.071188243  174.820527774
    0.640000000   -2.363697176  177.153703102
    0.641666667   -2.664900671  185.119432993
    0.643333333   -2.980646281  193.318028058
    0.645000000   -3.308575228  199.962708631
    0.646666667   -3.647058947  206.282130427
    0.648333333   -3.996378147  213.730381512
    0.650000000   -4.365068106  230.717878077
    0.651666667   -4.772441067  259.440623659
    0.653333333   -5.233736379  295.547247655
    0.655000000   -5.761633894  339.643907882
    0.656666667   -6.369723738  390.038912666
    0.658333333   -7.064780053  445.202168369
    0.660000000   -7.856583641  505.936136147
    0.661666667   -8.748679834  562.380390298
    0.663333333   -9.724445748  606.048341221
    0.665000000  -10.759913921  633.736978189
    0.666666667  -11.826140860  642.838420245
    0.668333333  -12.897373563  641.490247605
    0.670000000  -13.960054238  632.175854902
    0.671666667  -14.997547171  610.391265948
    0.673333333  -15.987553741  575.092128275
    0.675000000  -16.903452158  520.590581252
    0.676666667  -17.711677752  446.376031489
    0.678333333  -18.384822421  359.039075760
    0.680000000  -18.899477955  256.013617028
    0.681666667  -19.228059523  135.708757119
    0.683333333  -19.344787686    0.591385755
    0.685000000  -19.222496036 -147.370655208
    0.686666667  -18.854212542 -292.109249133
    0.688333333  -18.258051798 -421.466490645
    0.690000000  -17.459729625 -532.905533096
    0.691666667  -16.493031023 -623.481520462
    0.693333333  -15.389237356 -699.300250286
    0.695000000  -14.169628419 -761.636327124
    0.696666667  -12.862158889 -803.684412557
    0.698333333  -11.500789662 -826.952865763
    0.700000000  -10.115118459 -832.691979764
